digraph Tree {
node [shape=box] ;
0 [label="X[0] <= 2.5\ngini = 0.427\nsamples = 800\nvalue = [247, 553]"] ;
1 [label="X[2] <= 1.5\ngini = 0.495\nsamples = 440\nvalue = [199, 241]"] ;
0 -> 1 [labeldistance=2.5, labelangle=45, headlabel="True"] ;
2 [label="X[8] <= 3.5\ngini = 0.393\nsamples = 52\nvalue = [38, 14]"] ;
1 -> 2 ;
3 [label="X[12] <= 22.5\ngini = 0.365\nsamples = 50\nvalue = [38, 12]"] ;
2 -> 3 ;
4 [label="gini = 0.0\nsamples = 2\nvalue = [0, 2]"] ;
3 -> 4 ;
5 [label="X[0] <= 1.5\ngini = 0.33\nsamples = 48\nvalue = [38, 10]"] ;
3 -> 5 ;
6 [label="X[16] <= 3.5\ngini = 0.147\nsamples = 25\nvalue = [23, 2]"] ;
5 -> 6 ;
7 [label="X[10] <= 1.5\ngini = 0.083\nsamples = 23\nvalue = [22, 1]"] ;
6 -> 7 ;
8 [label="X[8] <= 2.0\ngini = 0.444\nsamples = 3\nvalue = [2, 1]"] ;
7 -> 8 ;
9 [label="gini = 0.0\nsamples = 2\nvalue = [2, 0]"] ;
8 -> 9 ;
10 [label="gini = 0.0\nsamples = 1\nvalue = [0, 1]"] ;
8 -> 10 ;
11 [label="gini = 0.0\nsamples = 20\nvalue = [20, 0]"] ;
7 -> 11 ;
12 [label="X[14] <= 2.5\ngini = 0.5\nsamples = 2\nvalue = [1, 1]"] ;
6 -> 12 ;
13 [label="gini = 0.0\nsamples = 1\nvalue = [1, 0]"] ;
12 -> 13 ;
14 [label="gini = 0.0\nsamples = 1\nvalue = [0, 1]"] ;
12 -> 14 ;
15 [label="X[5] <= 2.5\ngini = 0.454\nsamples = 23\nvalue = [15, 8]"] ;
5 -> 15 ;
16 [label="X[4] <= 3705.0\ngini = 0.346\nsamples = 18\nvalue = [14, 4]"] ;
15 -> 16 ;
17 [label="X[3] <= 1.0\ngini = 0.494\nsamples = 9\nvalue = [5, 4]"] ;
16 -> 17 ;
18 [label="gini = 0.0\nsamples = 4\nvalue = [4, 0]"] ;
17 -> 18 ;
19 [label="X[14] <= 1.5\ngini = 0.32\nsamples = 5\nvalue = [1, 4]"] ;
17 -> 19 ;
20 [label="gini = 0.0\nsamples = 1\nvalue = [1, 0]"] ;
19 -> 20 ;
21 [label="gini = 0.0\nsamples = 4\nvalue = [0, 4]"] ;
19 -> 21 ;
22 [label="gini = 0.0\nsamples = 9\nvalue = [9, 0]"] ;
16 -> 22 ;
23 [label="X[11] <= 2.5\ngini = 0.32\nsamples = 5\nvalue = [1, 4]"] ;
15 -> 23 ;
24 [label="gini = 0.0\nsamples = 1\nvalue = [1, 0]"] ;
23 -> 24 ;
25 [label="gini = 0.0\nsamples = 4\nvalue = [0, 4]"] ;
23 -> 25 ;
26 [label="gini = 0.0\nsamples = 2\nvalue = [0, 2]"] ;
2 -> 26 ;
27 [label="X[1] <= 22.5\ngini = 0.486\nsamples = 388\nvalue = [161, 227]"] ;
1 -> 27 ;
28 [label="X[4] <= 7284.0\ngini = 0.436\nsamples = 224\nvalue = [72, 152]"] ;
27 -> 28 ;
29 [label="X[1] <= 8.5\ngini = 0.427\nsamples = 220\nvalue = [68, 152]"] ;
28 -> 29 ;
30 [label="X[8] <= 1.5\ngini = 0.157\nsamples = 35\nvalue = [3, 32]"] ;
29 -> 30 ;
31 [label="X[11] <= 2.0\ngini = 0.5\nsamples = 2\nvalue = [1, 1]"] ;
30 -> 31 ;
32 [label="gini = 0.0\nsamples = 1\nvalue = [1, 0]"] ;
31 -> 32 ;
33 [label="gini = 0.0\nsamples = 1\nvalue = [0, 1]"] ;
31 -> 33 ;
34 [label="X[12] <= 24.5\ngini = 0.114\nsamples = 33\nvalue = [2, 31]"] ;
30 -> 34 ;
35 [label="X[10] <= 3.0\ngini = 0.444\nsamples = 3\nvalue = [1, 2]"] ;
34 -> 35 ;
36 [label="gini = 0.0\nsamples = 2\nvalue = [0, 2]"] ;
35 -> 36 ;
37 [label="gini = 0.0\nsamples = 1\nvalue = [1, 0]"] ;
35 -> 37 ;
38 [label="X[6] <= 1.5\ngini = 0.064\nsamples = 30\nvalue = [1, 29]"] ;
34 -> 38 ;
39 [label="X[15] <= 1.5\ngini = 0.375\nsamples = 4\nvalue = [1, 3]"] ;
38 -> 39 ;
40 [label="X[12] <= 61.0\ngini = 0.5\nsamples = 2\nvalue = [1, 1]"] ;
39 -> 40 ;
41 [label="gini = 0.0\nsamples = 1\nvalue = [1, 0]"] ;
40 -> 41 ;
42 [label="gini = 0.0\nsamples = 1\nvalue = [0, 1]"] ;
40 -> 42 ;
43 [label="gini = 0.0\nsamples = 2\nvalue = [0, 2]"] ;
39 -> 43 ;
44 [label="gini = 0.0\nsamples = 26\nvalue = [0, 26]"] ;
38 -> 44 ;
45 [label="X[4] <= 1387.5\ngini = 0.456\nsamples = 185\nvalue = [65, 120]"] ;
29 -> 45 ;
46 [label="X[11] <= 1.5\ngini = 0.5\nsamples = 75\nvalue = [37, 38]"] ;
45 -> 46 ;
47 [label="X[10] <= 3.5\ngini = 0.353\nsamples = 35\nvalue = [8, 27]"] ;
46 -> 47 ;
48 [label="X[4] <= 1192.5\ngini = 0.463\nsamples = 22\nvalue = [8, 14]"] ;
47 -> 48 ;
49 [label="X[8] <= 3.5\ngini = 0.32\nsamples = 15\nvalue = [3, 12]"] ;
48 -> 49 ;
50 [label="X[1] <= 15.0\ngini = 0.469\nsamples = 8\nvalue = [3, 5]"] ;
49 -> 50 ;
51 [label="X[10] <= 2.5\ngini = 0.408\nsamples = 7\nvalue = [2, 5]"] ;
50 -> 51 ;
52 [label="gini = 0.0\nsamples = 1\nvalue = [1, 0]"] ;
51 -> 52 ;
53 [label="X[12] <= 62.0\ngini = 0.278\nsamples = 6\nvalue = [1, 5]"] ;
51 -> 53 ;
54 [label="gini = 0.0\nsamples = 4\nvalue = [0, 4]"] ;
53 -> 54 ;
55 [label="X[1] <= 10.5\ngini = 0.5\nsamples = 2\nvalue = [1, 1]"] ;
53 -> 55 ;
56 [label="gini = 0.0\nsamples = 1\nvalue = [0, 1]"] ;
55 -> 56 ;
57 [label="gini = 0.0\nsamples = 1\nvalue = [1, 0]"] ;
55 -> 57 ;
58 [label="gini = 0.0\nsamples = 1\nvalue = [1, 0]"] ;
50 -> 58 ;
59 [label="gini = 0.0\nsamples = 7\nvalue = [0, 7]"] ;
49 -> 59 ;
60 [label="X[4] <= 1287.5\ngini = 0.408\nsamples = 7\nvalue = [5, 2]"] ;
48 -> 60 ;
61 [label="gini = 0.0\nsamples = 4\nvalue = [4, 0]"] ;
60 -> 61 ;
62 [label="X[4] <= 1344.5\ngini = 0.444\nsamples = 3\nvalue = [1, 2]"] ;
60 -> 62 ;
63 [label="gini = 0.0\nsamples = 2\nvalue = [0, 2]"] ;
62 -> 63 ;
64 [label="gini = 0.0\nsamples = 1\nvalue = [1, 0]"] ;
62 -> 64 ;
65 [label="gini = 0.0\nsamples = 13\nvalue = [0, 13]"] ;
47 -> 65 ;
66 [label="X[15] <= 1.5\ngini = 0.399\nsamples = 40\nvalue = [29, 11]"] ;
46 -> 66 ;
67 [label="X[12] <= 57.0\ngini = 0.271\nsamples = 31\nvalue = [26, 5]"] ;
66 -> 67 ;
68 [label="X[12] <= 27.0\ngini = 0.231\nsamples = 30\nvalue = [26, 4]"] ;
67 -> 68 ;
69 [label="X[1] <= 13.5\ngini = 0.391\nsamples = 15\nvalue = [11, 4]"] ;
68 -> 69 ;
70 [label="X[12] <= 25.5\ngini = 0.278\nsamples = 12\nvalue = [10, 2]"] ;
69 -> 70 ;
71 [label="X[4] <= 663.0\ngini = 0.165\nsamples = 11\nvalue = [10, 1]"] ;
70 -> 71 ;
72 [label="gini = 0.0\nsamples = 1\nvalue = [0, 1]"] ;
71 -> 72 ;
73 [label="gini = 0.0\nsamples = 10\nvalue = [10, 0]"] ;
71 -> 73 ;
74 [label="gini = 0.0\nsamples = 1\nvalue = [0, 1]"] ;
70 -> 74 ;
75 [label="X[7] <= 2.5\ngini = 0.444\nsamples = 3\nvalue = [1, 2]"] ;
69 -> 75 ;
76 [label="gini = 0.0\nsamples = 1\nvalue = [1, 0]"] ;
75 -> 76 ;
77 [label="gini = 0.0\nsamples = 2\nvalue = [0, 2]"] ;
75 -> 77 ;
78 [label="gini = 0.0\nsamples = 15\nvalue = [15, 0]"] ;
68 -> 78 ;
79 [label="gini = 0.0\nsamples = 1\nvalue = [0, 1]"] ;
67 -> 79 ;
80 [label="X[17] <= 1.5\ngini = 0.444\nsamples = 9\nvalue = [3, 6]"] ;
66 -> 80 ;
81 [label="X[15] <= 3.5\ngini = 0.245\nsamples = 7\nvalue = [1, 6]"] ;
80 -> 81 ;
82 [label="gini = 0.0\nsamples = 6\nvalue = [0, 6]"] ;
81 -> 82 ;
83 [label="gini = 0.0\nsamples = 1\nvalue = [1, 0]"] ;
81 -> 83 ;
84 [label="gini = 0.0\nsamples = 2\nvalue = [2, 0]"] ;
80 -> 84 ;
85 [label="X[11] <= 3.5\ngini = 0.38\nsamples = 110\nvalue = [28, 82]"] ;
45 -> 85 ;
86 [label="X[12] <= 57.0\ngini = 0.349\nsamples = 102\nvalue = [23, 79]"] ;
85 -> 86 ;
87 [label="X[14] <= 1.5\ngini = 0.327\nsamples = 97\nvalue = [20, 77]"] ;
86 -> 87 ;
88 [label="X[6] <= 4.5\ngini = 0.444\nsamples = 27\nvalue = [9, 18]"] ;
87 -> 88 ;
89 [label="X[4] <= 2705.0\ngini = 0.386\nsamples = 23\nvalue = [6, 17]"] ;
88 -> 89 ;
90 [label="X[1] <= 16.5\ngini = 0.469\nsamples = 16\nvalue = [6, 10]"] ;
89 -> 90 ;
91 [label="X[0] <= 1.5\ngini = 0.298\nsamples = 11\nvalue = [2, 9]"] ;
90 -> 91 ;
92 [label="gini = 0.0\nsamples = 8\nvalue = [0, 8]"] ;
91 -> 92 ;
93 [label="X[6] <= 3.5\ngini = 0.444\nsamples = 3\nvalue = [2, 1]"] ;
91 -> 93 ;
94 [label="gini = 0.0\nsamples = 2\nvalue = [2, 0]"] ;
93 -> 94 ;
95 [label="gini = 0.0\nsamples = 1\nvalue = [0, 1]"] ;
93 -> 95 ;
96 [label="X[1] <= 20.5\ngini = 0.32\nsamples = 5\nvalue = [4, 1]"] ;
90 -> 96 ;
97 [label="gini = 0.0\nsamples = 4\nvalue = [4, 0]"] ;
96 -> 97 ;
98 [label="gini = 0.0\nsamples = 1\nvalue = [0, 1]"] ;
96 -> 98 ;
99 [label="gini = 0.0\nsamples = 7\nvalue = [0, 7]"] ;
89 -> 99 ;
100 [label="X[3] <= 1.0\ngini = 0.375\nsamples = 4\nvalue = [3, 1]"] ;
88 -> 100 ;
101 [label="gini = 0.0\nsamples = 3\nvalue = [3, 0]"] ;
100 -> 101 ;
102 [label="gini = 0.0\nsamples = 1\nvalue = [0, 1]"] ;
100 -> 102 ;
103 [label="X[12] <= 26.5\ngini = 0.265\nsamples = 70\nvalue = [11, 59]"] ;
87 -> 103 ;
104 [label="X[12] <= 24.5\ngini = 0.432\nsamples = 19\nvalue = [6, 13]"] ;
103 -> 104 ;
105 [label="X[1] <= 10.0\ngini = 0.153\nsamples = 12\nvalue = [1, 11]"] ;
104 -> 105 ;
106 [label="X[3] <= 2.5\ngini = 0.5\nsamples = 2\nvalue = [1, 1]"] ;
105 -> 106 ;
107 [label="gini = 0.0\nsamples = 1\nvalue = [0, 1]"] ;
106 -> 107 ;
108 [label="gini = 0.0\nsamples = 1\nvalue = [1, 0]"] ;
106 -> 108 ;
109 [label="gini = 0.0\nsamples = 10\nvalue = [0, 10]"] ;
105 -> 109 ;
110 [label="X[4] <= 1454.0\ngini = 0.408\nsamples = 7\nvalue = [5, 2]"] ;
104 -> 110 ;
111 [label="gini = 0.0\nsamples = 1\nvalue = [0, 1]"] ;
110 -> 111 ;
112 [label="X[1] <= 10.5\ngini = 0.278\nsamples = 6\nvalue = [5, 1]"] ;
110 -> 112 ;
113 [label="gini = 0.0\nsamples = 1\nvalue = [0, 1]"] ;
112 -> 113 ;
114 [label="gini = 0.0\nsamples = 5\nvalue = [5, 0]"] ;
112 -> 114 ;
115 [label="X[5] <= 1.5\ngini = 0.177\nsamples = 51\nvalue = [5, 46]"] ;
103 -> 115 ;
116 [label="X[1] <= 9.5\ngini = 0.278\nsamples = 30\nvalue = [5, 25]"] ;
115 -> 116 ;
117 [label="gini = 0.0\nsamples = 1\nvalue = [1, 0]"] ;
116 -> 117 ;
118 [label="X[3] <= 0.5\ngini = 0.238\nsamples = 29\nvalue = [4, 25]"] ;
116 -> 118 ;
119 [label="X[10] <= 2.5\ngini = 0.444\nsamples = 9\nvalue = [3, 6]"] ;
118 -> 119 ;
120 [label="X[7] <= 2.5\ngini = 0.48\nsamples = 5\nvalue = [3, 2]"] ;
119 -> 120 ;
121 [label="gini = 0.0\nsamples = 2\nvalue = [0, 2]"] ;
120 -> 121 ;
122 [label="gini = 0.0\nsamples = 3\nvalue = [3, 0]"] ;
120 -> 122 ;
123 [label="gini = 0.0\nsamples = 4\nvalue = [0, 4]"] ;
119 -> 123 ;
124 [label="X[4] <= 3902.5\ngini = 0.095\nsamples = 20\nvalue = [1, 19]"] ;
118 -> 124 ;
125 [label="gini = 0.0\nsamples = 16\nvalue = [0, 16]"] ;
124 -> 125 ;
126 [label="X[4] <= 4296.0\ngini = 0.375\nsamples = 4\nvalue = [1, 3]"] ;
124 -> 126 ;
127 [label="gini = 0.0\nsamples = 1\nvalue = [1, 0]"] ;
126 -> 127 ;
128 [label="gini = 0.0\nsamples = 3\nvalue = [0, 3]"] ;
126 -> 128 ;
129 [label="gini = 0.0\nsamples = 21\nvalue = [0, 21]"] ;
115 -> 129 ;
130 [label="X[6] <= 2.0\ngini = 0.48\nsamples = 5\nvalue = [3, 2]"] ;
86 -> 130 ;
131 [label="gini = 0.0\nsamples = 2\nvalue = [0, 2]"] ;
130 -> 131 ;
132 [label="gini = 0.0\nsamples = 3\nvalue = [3, 0]"] ;
130 -> 132 ;
133 [label="X[18] <= 1.5\ngini = 0.469\nsamples = 8\nvalue = [5, 3]"] ;
85 -> 133 ;
134 [label="X[3] <= 2.5\ngini = 0.375\nsamples = 4\nvalue = [1, 3]"] ;
133 -> 134 ;
135 [label="gini = 0.0\nsamples = 3\nvalue = [0, 3]"] ;
134 -> 135 ;
136 [label="gini = 0.0\nsamples = 1\nvalue = [1, 0]"] ;
134 -> 136 ;
137 [label="gini = 0.0\nsamples = 4\nvalue = [4, 0]"] ;
133 -> 137 ;
138 [label="gini = 0.0\nsamples = 4\nvalue = [4, 0]"] ;
28 -> 138 ;
139 [label="X[5] <= 3.5\ngini = 0.496\nsamples = 164\nvalue = [89, 75]"] ;
27 -> 139 ;
140 [label="X[1] <= 47.5\ngini = 0.476\nsamples = 133\nvalue = [81, 52]"] ;
139 -> 140 ;
141 [label="X[3] <= 0.5\ngini = 0.495\nsamples = 113\nvalue = [62, 51]"] ;
140 -> 141 ;
142 [label="X[5] <= 1.5\ngini = 0.33\nsamples = 24\nvalue = [19, 5]"] ;
141 -> 142 ;
143 [label="X[1] <= 41.5\ngini = 0.245\nsamples = 21\nvalue = [18, 3]"] ;
142 -> 143 ;
144 [label="X[4] <= 1204.0\ngini = 0.18\nsamples = 20\nvalue = [18, 2]"] ;
143 -> 144 ;
145 [label="X[15] <= 1.5\ngini = 0.5\nsamples = 2\nvalue = [1, 1]"] ;
144 -> 145 ;
146 [label="gini = 0.0\nsamples = 1\nvalue = [0, 1]"] ;
145 -> 146 ;
147 [label="gini = 0.0\nsamples = 1\nvalue = [1, 0]"] ;
145 -> 147 ;
148 [label="X[12] <= 53.5\ngini = 0.105\nsamples = 18\nvalue = [17, 1]"] ;
144 -> 148 ;
149 [label="gini = 0.0\nsamples = 16\nvalue = [16, 0]"] ;
148 -> 149 ;
150 [label="X[6] <= 4.0\ngini = 0.5\nsamples = 2\nvalue = [1, 1]"] ;
148 -> 150 ;
151 [label="gini = 0.0\nsamples = 1\nvalue = [0, 1]"] ;
150 -> 151 ;
152 [label="gini = 0.0\nsamples = 1\nvalue = [1, 0]"] ;
150 -> 152 ;
153 [label="gini = 0.0\nsamples = 1\nvalue = [0, 1]"] ;
143 -> 153 ;
154 [label="X[12] <= 40.0\ngini = 0.444\nsamples = 3\nvalue = [1, 2]"] ;
142 -> 154 ;
155 [label="gini = 0.0\nsamples = 2\nvalue = [0, 2]"] ;
154 -> 155 ;
156 [label="gini = 0.0\nsamples = 1\nvalue = [1, 0]"] ;
154 -> 156 ;
157 [label="X[6] <= 3.5\ngini = 0.499\nsamples = 89\nvalue = [43, 46]"] ;
141 -> 157 ;
158 [label="X[4] <= 2524.0\ngini = 0.483\nsamples = 54\nvalue = [32, 22]"] ;
157 -> 158 ;
159 [label="X[9] <= 1.5\ngini = 0.219\nsamples = 16\nvalue = [14, 2]"] ;
158 -> 159 ;
160 [label="X[12] <= 42.0\ngini = 0.124\nsamples = 15\nvalue = [14, 1]"] ;
159 -> 160 ;
161 [label="gini = 0.0\nsamples = 13\nvalue = [13, 0]"] ;
160 -> 161 ;
162 [label="X[4] <= 1686.0\ngini = 0.5\nsamples = 2\nvalue = [1, 1]"] ;
160 -> 162 ;
163 [label="gini = 0.0\nsamples = 1\nvalue = [1, 0]"] ;
162 -> 163 ;
164 [label="gini = 0.0\nsamples = 1\nvalue = [0, 1]"] ;
162 -> 164 ;
165 [label="gini = 0.0\nsamples = 1\nvalue = [0, 1]"] ;
159 -> 165 ;
166 [label="X[4] <= 7506.5\ngini = 0.499\nsamples = 38\nvalue = [18, 20]"] ;
158 -> 166 ;
167 [label="X[13] <= 2.5\ngini = 0.452\nsamples = 29\nvalue = [10, 19]"] ;
166 -> 167 ;
168 [label="X[1] <= 27.0\ngini = 0.408\nsamples = 7\nvalue = [5, 2]"] ;
167 -> 168 ;
169 [label="X[2] <= 3.0\ngini = 0.444\nsamples = 3\nvalue = [1, 2]"] ;
168 -> 169 ;
170 [label="gini = 0.0\nsamples = 2\nvalue = [0, 2]"] ;
169 -> 170 ;
171 [label="gini = 0.0\nsamples = 1\nvalue = [1, 0]"] ;
169 -> 171 ;
172 [label="gini = 0.0\nsamples = 4\nvalue = [4, 0]"] ;
168 -> 172 ;
173 [label="X[4] <= 3325.0\ngini = 0.351\nsamples = 22\nvalue = [5, 17]"] ;
167 -> 173 ;
174 [label="X[10] <= 3.0\ngini = 0.49\nsamples = 7\nvalue = [4, 3]"] ;
173 -> 174 ;
175 [label="X[4] <= 3056.5\ngini = 0.375\nsamples = 4\nvalue = [1, 3]"] ;
174 -> 175 ;
176 [label="gini = 0.0\nsamples = 3\nvalue = [0, 3]"] ;
175 -> 176 ;
177 [label="gini = 0.0\nsamples = 1\nvalue = [1, 0]"] ;
175 -> 177 ;
178 [label="gini = 0.0\nsamples = 3\nvalue = [3, 0]"] ;
174 -> 178 ;
179 [label="X[5] <= 2.5\ngini = 0.124\nsamples = 15\nvalue = [1, 14]"] ;
173 -> 179 ;
180 [label="gini = 0.0\nsamples = 13\nvalue = [0, 13]"] ;
179 -> 180 ;
181 [label="X[12] <= 25.5\ngini = 0.5\nsamples = 2\nvalue = [1, 1]"] ;
179 -> 181 ;
182 [label="gini = 0.0\nsamples = 1\nvalue = [0, 1]"] ;
181 -> 182 ;
183 [label="gini = 0.0\nsamples = 1\nvalue = [1, 0]"] ;
181 -> 183 ;
184 [label="X[4] <= 13927.5\ngini = 0.198\nsamples = 9\nvalue = [8, 1]"] ;
166 -> 184 ;
185 [label="gini = 0.0\nsamples = 8\nvalue = [8, 0]"] ;
184 -> 185 ;
186 [label="gini = 0.0\nsamples = 1\nvalue = [0, 1]"] ;
184 -> 186 ;
187 [label="X[4] <= 3207.0\ngini = 0.431\nsamples = 35\nvalue = [11, 24]"] ;
157 -> 187 ;
188 [label="X[8] <= 1.5\ngini = 0.219\nsamples = 16\nvalue = [2, 14]"] ;
187 -> 188 ;
189 [label="gini = 0.0\nsamples = 1\nvalue = [1, 0]"] ;
188 -> 189 ;
190 [label="X[7] <= 2.5\ngini = 0.124\nsamples = 15\nvalue = [1, 14]"] ;
188 -> 190 ;
191 [label="X[2] <= 2.5\ngini = 0.444\nsamples = 3\nvalue = [1, 2]"] ;
190 -> 191 ;
192 [label="gini = 0.0\nsamples = 2\nvalue = [0, 2]"] ;
191 -> 192 ;
193 [label="gini = 0.0\nsamples = 1\nvalue = [1, 0]"] ;
191 -> 193 ;
194 [label="gini = 0.0\nsamples = 12\nvalue = [0, 12]"] ;
190 -> 194 ;
195 [label="X[4] <= 5336.0\ngini = 0.499\nsamples = 19\nvalue = [9, 10]"] ;
187 -> 195 ;
196 [label="gini = 0.0\nsamples = 6\nvalue = [6, 0]"] ;
195 -> 196 ;
197 [label="X[4] <= 8134.0\ngini = 0.355\nsamples = 13\nvalue = [3, 10]"] ;
195 -> 197 ;
198 [label="gini = 0.0\nsamples = 7\nvalue = [0, 7]"] ;
197 -> 198 ;
199 [label="X[12] <= 41.0\ngini = 0.5\nsamples = 6\nvalue = [3, 3]"] ;
197 -> 199 ;
200 [label="X[4] <= 9743.0\ngini = 0.375\nsamples = 4\nvalue = [1, 3]"] ;
199 -> 200 ;
201 [label="gini = 0.0\nsamples = 1\nvalue = [1, 0]"] ;
200 -> 201 ;
202 [label="gini = 0.0\nsamples = 3\nvalue = [0, 3]"] ;
200 -> 202 ;
203 [label="gini = 0.0\nsamples = 2\nvalue = [2, 0]"] ;
199 -> 203 ;
204 [label="X[17] <= 1.5\ngini = 0.095\nsamples = 20\nvalue = [19, 1]"] ;
140 -> 204 ;
205 [label="gini = 0.0\nsamples = 17\nvalue = [17, 0]"] ;
204 -> 205 ;
206 [label="X[14] <= 2.5\ngini = 0.444\nsamples = 3\nvalue = [2, 1]"] ;
204 -> 206 ;
207 [label="gini = 0.0\nsamples = 1\nvalue = [0, 1]"] ;
206 -> 207 ;
208 [label="gini = 0.0\nsamples = 2\nvalue = [2, 0]"] ;
206 -> 208 ;
209 [label="X[0] <= 1.5\ngini = 0.383\nsamples = 31\nvalue = [8, 23]"] ;
139 -> 209 ;
210 [label="X[15] <= 1.5\ngini = 0.497\nsamples = 13\nvalue = [7, 6]"] ;
209 -> 210 ;
211 [label="X[1] <= 27.0\ngini = 0.42\nsamples = 10\nvalue = [7, 3]"] ;
210 -> 211 ;
212 [label="X[3] <= 0.5\ngini = 0.5\nsamples = 6\nvalue = [3, 3]"] ;
211 -> 212 ;
213 [label="gini = 0.0\nsamples = 2\nvalue = [2, 0]"] ;
212 -> 213 ;
214 [label="X[8] <= 3.5\ngini = 0.375\nsamples = 4\nvalue = [1, 3]"] ;
212 -> 214 ;
215 [label="gini = 0.0\nsamples = 3\nvalue = [0, 3]"] ;
214 -> 215 ;
216 [label="gini = 0.0\nsamples = 1\nvalue = [1, 0]"] ;
214 -> 216 ;
217 [label="gini = 0.0\nsamples = 4\nvalue = [4, 0]"] ;
211 -> 217 ;
218 [label="gini = 0.0\nsamples = 3\nvalue = [0, 3]"] ;
210 -> 218 ;
219 [label="X[9] <= 1.5\ngini = 0.105\nsamples = 18\nvalue = [1, 17]"] ;
209 -> 219 ;
220 [label="gini = 0.0\nsamples = 17\nvalue = [0, 17]"] ;
219 -> 220 ;
221 [label="gini = 0.0\nsamples = 1\nvalue = [1, 0]"] ;
219 -> 221 ;
222 [label="X[13] <= 2.5\ngini = 0.231\nsamples = 360\nvalue = [48, 312]"] ;
0 -> 222 [labeldistance=2.5, labelangle=-45, headlabel="False"] ;
223 [label="X[3] <= 0.5\ngini = 0.414\nsamples = 58\nvalue = [17, 41]"] ;
222 -> 223 ;
224 [label="X[1] <= 15.0\ngini = 0.486\nsamples = 12\nvalue = [7, 5]"] ;
223 -> 224 ;
225 [label="gini = 0.0\nsamples = 4\nvalue = [0, 4]"] ;
224 -> 225 ;
226 [label="X[4] <= 10805.5\ngini = 0.219\nsamples = 8\nvalue = [7, 1]"] ;
224 -> 226 ;
227 [label="gini = 0.0\nsamples = 7\nvalue = [7, 0]"] ;
226 -> 227 ;
228 [label="gini = 0.0\nsamples = 1\nvalue = [0, 1]"] ;
226 -> 228 ;
229 [label="X[3] <= 4.5\ngini = 0.34\nsamples = 46\nvalue = [10, 36]"] ;
223 -> 229 ;
230 [label="X[6] <= 1.5\ngini = 0.121\nsamples = 31\nvalue = [2, 29]"] ;
229 -> 230 ;
231 [label="gini = 0.0\nsamples = 1\nvalue = [1, 0]"] ;
230 -> 231 ;
232 [label="X[6] <= 4.5\ngini = 0.064\nsamples = 30\nvalue = [1, 29]"] ;
230 -> 232 ;
233 [label="gini = 0.0\nsamples = 19\nvalue = [0, 19]"] ;
232 -> 233 ;
234 [label="X[10] <= 2.5\ngini = 0.165\nsamples = 11\nvalue = [1, 10]"] ;
232 -> 234 ;
235 [label="X[4] <= 2982.5\ngini = 0.5\nsamples = 2\nvalue = [1, 1]"] ;
234 -> 235 ;
236 [label="gini = 0.0\nsamples = 1\nvalue = [1, 0]"] ;
235 -> 236 ;
237 [label="gini = 0.0\nsamples = 1\nvalue = [0, 1]"] ;
235 -> 237 ;
238 [label="gini = 0.0\nsamples = 9\nvalue = [0, 9]"] ;
234 -> 238 ;
239 [label="X[6] <= 3.5\ngini = 0.498\nsamples = 15\nvalue = [8, 7]"] ;
229 -> 239 ;
240 [label="X[7] <= 1.5\ngini = 0.42\nsamples = 10\nvalue = [7, 3]"] ;
239 -> 240 ;
241 [label="gini = 0.0\nsamples = 2\nvalue = [0, 2]"] ;
240 -> 241 ;
242 [label="X[3] <= 9.5\ngini = 0.219\nsamples = 8\nvalue = [7, 1]"] ;
240 -> 242 ;
243 [label="gini = 0.0\nsamples = 7\nvalue = [7, 0]"] ;
242 -> 243 ;
244 [label="gini = 0.0\nsamples = 1\nvalue = [0, 1]"] ;
242 -> 244 ;
245 [label="X[4] <= 1056.0\ngini = 0.32\nsamples = 5\nvalue = [1, 4]"] ;
239 -> 245 ;
246 [label="gini = 0.0\nsamples = 1\nvalue = [1, 0]"] ;
245 -> 246 ;
247 [label="gini = 0.0\nsamples = 4\nvalue = [0, 4]"] ;
245 -> 247 ;
248 [label="X[4] <= 9504.0\ngini = 0.184\nsamples = 302\nvalue = [31, 271]"] ;
222 -> 248 ;
249 [label="X[12] <= 22.5\ngini = 0.168\nsamples = 292\nvalue = [27, 265]"] ;
248 -> 249 ;
250 [label="X[11] <= 1.5\ngini = 0.463\nsamples = 11\nvalue = [4, 7]"] ;
249 -> 250 ;
251 [label="gini = 0.0\nsamples = 2\nvalue = [2, 0]"] ;
250 -> 251 ;
252 [label="X[12] <= 19.5\ngini = 0.346\nsamples = 9\nvalue = [2, 7]"] ;
250 -> 252 ;
253 [label="gini = 0.0\nsamples = 1\nvalue = [1, 0]"] ;
252 -> 253 ;
254 [label="X[12] <= 21.5\ngini = 0.219\nsamples = 8\nvalue = [1, 7]"] ;
252 -> 254 ;
255 [label="gini = 0.0\nsamples = 6\nvalue = [0, 6]"] ;
254 -> 255 ;
256 [label="X[8] <= 2.5\ngini = 0.5\nsamples = 2\nvalue = [1, 1]"] ;
254 -> 256 ;
257 [label="gini = 0.0\nsamples = 1\nvalue = [0, 1]"] ;
256 -> 257 ;
258 [label="gini = 0.0\nsamples = 1\nvalue = [1, 0]"] ;
256 -> 258 ;
259 [label="X[0] <= 3.5\ngini = 0.15\nsamples = 281\nvalue = [23, 258]"] ;
249 -> 259 ;
260 [label="X[15] <= 2.5\ngini = 0.314\nsamples = 41\nvalue = [8, 33]"] ;
259 -> 260 ;
261 [label="X[12] <= 64.5\ngini = 0.289\nsamples = 40\nvalue = [7, 33]"] ;
260 -> 261 ;
262 [label="X[16] <= 2.5\ngini = 0.26\nsamples = 39\nvalue = [6, 33]"] ;
261 -> 262 ;
263 [label="X[12] <= 26.0\ngini = 0.444\nsamples = 9\nvalue = [3, 6]"] ;
262 -> 263 ;
264 [label="gini = 0.0\nsamples = 1\nvalue = [1, 0]"] ;
263 -> 264 ;
265 [label="X[6] <= 4.0\ngini = 0.375\nsamples = 8\nvalue = [2, 6]"] ;
263 -> 265 ;
266 [label="X[7] <= 2.5\ngini = 0.245\nsamples = 7\nvalue = [1, 6]"] ;
265 -> 266 ;
267 [label="gini = 0.0\nsamples = 6\nvalue = [0, 6]"] ;
266 -> 267 ;
268 [label="gini = 0.0\nsamples = 1\nvalue = [1, 0]"] ;
266 -> 268 ;
269 [label="gini = 0.0\nsamples = 1\nvalue = [1, 0]"] ;
265 -> 269 ;
270 [label="X[9] <= 1.5\ngini = 0.18\nsamples = 30\nvalue = [3, 27]"] ;
262 -> 270 ;
271 [label="X[2] <= 1.0\ngini = 0.128\nsamples = 29\nvalue = [2, 27]"] ;
270 -> 271 ;
272 [label="X[1] <= 25.5\ngini = 0.5\nsamples = 2\nvalue = [1, 1]"] ;
271 -> 272 ;
273 [label="gini = 0.0\nsamples = 1\nvalue = [1, 0]"] ;
272 -> 273 ;
274 [label="gini = 0.0\nsamples = 1\nvalue = [0, 1]"] ;
272 -> 274 ;
275 [label="X[4] <= 4064.5\ngini = 0.071\nsamples = 27\nvalue = [1, 26]"] ;
271 -> 275 ;
276 [label="gini = 0.0\nsamples = 23\nvalue = [0, 23]"] ;
275 -> 276 ;
277 [label="X[4] <= 4341.5\ngini = 0.375\nsamples = 4\nvalue = [1, 3]"] ;
275 -> 277 ;
278 [label="gini = 0.0\nsamples = 1\nvalue = [1, 0]"] ;
277 -> 278 ;
279 [label="gini = 0.0\nsamples = 3\nvalue = [0, 3]"] ;
277 -> 279 ;
280 [label="gini = 0.0\nsamples = 1\nvalue = [1, 0]"] ;
270 -> 280 ;
281 [label="gini = 0.0\nsamples = 1\nvalue = [1, 0]"] ;
261 -> 281 ;
282 [label="gini = 0.0\nsamples = 1\nvalue = [1, 0]"] ;
260 -> 282 ;
283 [label="X[6] <= 3.5\ngini = 0.117\nsamples = 240\nvalue = [15, 225]"] ;
259 -> 283 ;
284 [label="X[4] <= 4558.5\ngini = 0.174\nsamples = 125\nvalue = [12, 113]"] ;
283 -> 284 ;
285 [label="X[9] <= 1.5\ngini = 0.119\nsamples = 110\nvalue = [7, 103]"] ;
284 -> 285 ;
286 [label="X[12] <= 30.5\ngini = 0.091\nsamples = 105\nvalue = [5, 100]"] ;
285 -> 286 ;
287 [label="X[4] <= 2302.0\ngini = 0.198\nsamples = 45\nvalue = [5, 40]"] ;
286 -> 287 ;
288 [label="X[4] <= 2157.5\ngini = 0.271\nsamples = 31\nvalue = [5, 26]"] ;
287 -> 288 ;
289 [label="X[5] <= 1.5\ngini = 0.185\nsamples = 29\nvalue = [3, 26]"] ;
288 -> 289 ;
290 [label="gini = 0.0\nsamples = 20\nvalue = [0, 20]"] ;
289 -> 290 ;
291 [label="X[12] <= 29.5\ngini = 0.444\nsamples = 9\nvalue = [3, 6]"] ;
289 -> 291 ;
292 [label="X[3] <= 2.5\ngini = 0.375\nsamples = 8\nvalue = [2, 6]"] ;
291 -> 292 ;
293 [label="X[2] <= 3.0\ngini = 0.444\nsamples = 3\nvalue = [2, 1]"] ;
292 -> 293 ;
294 [label="gini = 0.0\nsamples = 2\nvalue = [2, 0]"] ;
293 -> 294 ;
295 [label="gini = 0.0\nsamples = 1\nvalue = [0, 1]"] ;
293 -> 295 ;
296 [label="gini = 0.0\nsamples = 5\nvalue = [0, 5]"] ;
292 -> 296 ;
297 [label="gini = 0.0\nsamples = 1\nvalue = [1, 0]"] ;
291 -> 297 ;
298 [label="gini = 0.0\nsamples = 2\nvalue = [2, 0]"] ;
288 -> 298 ;
299 [label="gini = 0.0\nsamples = 14\nvalue = [0, 14]"] ;
287 -> 299 ;
300 [label="gini = 0.0\nsamples = 60\nvalue = [0, 60]"] ;
286 -> 300 ;
301 [label="X[4] <= 1803.0\ngini = 0.48\nsamples = 5\nvalue = [2, 3]"] ;
285 -> 301 ;
302 [label="gini = 0.0\nsamples = 2\nvalue = [2, 0]"] ;
301 -> 302 ;
303 [label="gini = 0.0\nsamples = 3\nvalue = [0, 3]"] ;
301 -> 303 ;
304 [label="X[3] <= 1.5\ngini = 0.444\nsamples = 15\nvalue = [5, 10]"] ;
284 -> 304 ;
305 [label="gini = 0.0\nsamples = 8\nvalue = [0, 8]"] ;
304 -> 305 ;
306 [label="X[14] <= 2.5\ngini = 0.408\nsamples = 7\nvalue = [5, 2]"] ;
304 -> 306 ;
307 [label="X[12] <= 32.5\ngini = 0.278\nsamples = 6\nvalue = [5, 1]"] ;
306 -> 307 ;
308 [label="X[7] <= 2.0\ngini = 0.5\nsamples = 2\nvalue = [1, 1]"] ;
307 -> 308 ;
309 [label="gini = 0.0\nsamples = 1\nvalue = [1, 0]"] ;
308 -> 309 ;
310 [label="gini = 0.0\nsamples = 1\nvalue = [0, 1]"] ;
308 -> 310 ;
311 [label="gini = 0.0\nsamples = 4\nvalue = [4, 0]"] ;
307 -> 311 ;
312 [label="gini = 0.0\nsamples = 1\nvalue = [0, 1]"] ;
306 -> 312 ;
313 [label="X[17] <= 1.5\ngini = 0.051\nsamples = 115\nvalue = [3, 112]"] ;
283 -> 313 ;
314 [label="X[12] <= 32.0\ngini = 0.02\nsamples = 98\nvalue = [1, 97]"] ;
313 -> 314 ;
315 [label="X[12] <= 30.5\ngini = 0.074\nsamples = 26\nvalue = [1, 25]"] ;
314 -> 315 ;
316 [label="gini = 0.0\nsamples = 23\nvalue = [0, 23]"] ;
315 -> 316 ;
317 [label="X[6] <= 4.5\ngini = 0.444\nsamples = 3\nvalue = [1, 2]"] ;
315 -> 317 ;
318 [label="gini = 0.0\nsamples = 2\nvalue = [0, 2]"] ;
317 -> 318 ;
319 [label="gini = 0.0\nsamples = 1\nvalue = [1, 0]"] ;
317 -> 319 ;
320 [label="gini = 0.0\nsamples = 72\nvalue = [0, 72]"] ;
314 -> 320 ;
321 [label="X[16] <= 2.5\ngini = 0.208\nsamples = 17\nvalue = [2, 15]"] ;
313 -> 321 ;
322 [label="X[7] <= 3.5\ngini = 0.48\nsamples = 5\nvalue = [2, 3]"] ;
321 -> 322 ;
323 [label="gini = 0.0\nsamples = 3\nvalue = [0, 3]"] ;
322 -> 323 ;
324 [label="gini = 0.0\nsamples = 2\nvalue = [2, 0]"] ;
322 -> 324 ;
325 [label="gini = 0.0\nsamples = 12\nvalue = [0, 12]"] ;
321 -> 325 ;
326 [label="X[6] <= 3.5\ngini = 0.48\nsamples = 10\nvalue = [4, 6]"] ;
248 -> 326 ;
327 [label="gini = 0.0\nsamples = 3\nvalue = [3, 0]"] ;
326 -> 327 ;
328 [label="X[1] <= 28.5\ngini = 0.245\nsamples = 7\nvalue = [1, 6]"] ;
326 -> 328 ;
329 [label="gini = 0.0\nsamples = 1\nvalue = [1, 0]"] ;
328 -> 329 ;
330 [label="gini = 0.0\nsamples = 6\nvalue = [0, 6]"] ;
328 -> 330 ;
}